2.73568994818037,2.23982515842205,3.36467703060739,2.13820599236922,1.17245230651092,-3.05904284030682,5.57928986829547,5.63980491914258,5.24427147941753,5.47547345617014,0.199476593216417,-5.98544791795716,1.13746824350365,1.07271341618082,1.5028164928242,1.74369000128989,1.31449575773658,-1.50249783333323,5.60745749711179,5.06669835571111,2.67520800777107,4.82836339182083,5.41791836982832,-5.38416676048101,4.54127110300578,3.96084809798966,3.79627650946478,3.7734172958257,3.30510107740199,-4.19529912371407,171.565251381552,172.500768073676,184.192212836558,172.01623986924,80.282303514844,-172.35958042073,1.61351354110035,2.66573811906226,2.76822470554527,2.53085041995013,3.75525527779565,-2.87690788346179,1204.13237832585,1203.77682608812,1224.59756385608,1203.51892428596,591.629700404238,-1204.37220091073,-998111.613690643,-1066067.16267344,-763984.602008845,-1068587.7190789,-858075.321572843,1066067.03628372,4.15870317494828,4.59620745025345,4.24854345923413,5.22245386472645,3.9798340849264,-4.25752381525704,-10.7576496407059,-10.0071163250588,-11.2370493341082,-10.8253932486906,-11.0444293122825,-9.94289685885419,-10.6668799425943,-10.3914556619087,10.6630566099572,-11.143225344424,-108.779032043184,326.526850881779,330.632446049154,326.439512679567,327.424574407871,326.987489408085,324.973620131639,328.210694705594,324.193833525746,-326.18364462703,327.323889342034,3265.91794439811,
